<?xml version="1.0"?>
<opencv_storage>
<cascade>
  <stageType>BOOST</stageType>
  <featureType>HAAR</featureType>
  <height>50</height>
  <width>50</width>
  <stageParams>
    <boostType>GAB</boostType>
    <minHitRate>9.9500000476837158e-01</minHitRate>
    <maxFalseAlarm>5.0000000000000000e-01</maxFalseAlarm>
    <weightTrimRate>9.4999998807907104e-01</weightTrimRate>
    <maxDepth>1</maxDepth>
    <maxWeakCount>100</maxWeakCount></stageParams>
  <featureParams>
    <maxCatCount>0</maxCatCount>
    <featSize>1</featSize>
    <mode>BASIC</mode></featureParams>
  <stageNum>4</stageNum>
  <stages>
    <!-- stage 0 -->
    <_>
      <maxWeakCount>7</maxWeakCount>
      <stageThreshold>-1.7749965190887451e+00</stageThreshold>
      <weakClassifiers>
        <_>
          <internalNodes>
            0 -1 8 2.7837589383125305e-02</internalNodes>
          <leafValues>
            -7.6522505283355713e-01 1.</leafValues></_>
        <_>
          <internalNodes>
            0 -1 1 4.9154969019582495e-06</internalNodes>
          <leafValues>
            1.1892940849065781e-01 -6.5380561351776123e-01</leafValues></_>
        <_>
          <internalNodes>
            0 -1 23 3.1056013540364802e-05</internalNodes>
          <leafValues>
            2.4009032547473907e-01 -6.2915521860122681e-01</leafValues></_>
        <_>
          <internalNodes>
            0 -1 0 1.1437519453465939e-02</internalNodes>
          <leafValues>
            2.4284325540065765e-01 -7.8599369525909424e-01</leafValues></_>
        <_>
          <internalNodes>
            0 -1 21 -2.8884387575089931e-05</internalNodes>
          <leafValues>
            -5.6054759025573730e-01 2.5194600224494934e-01</leafValues></_>
        <_>
          <internalNodes>
            0 -1 19 3.5678700078278780e-04</internalNodes>
          <leafValues>
            3.0570134520530701e-01 -5.5738019943237305e-01</leafValues></_>
        <_>
          <internalNodes>
            0 -1 18 -2.1137264411663637e-05</internalNodes>
          <leafValues>
            -5.2730125188827515e-01 3.3161428570747375e-01</leafValues></_></weakClassifiers></_>
    <!-- stage 1 -->
    <_>
      <maxWeakCount>8</maxWeakCount>
      <stageThreshold>-1.6582447290420532e+00</stageThreshold>
      <weakClassifiers>
        <_>
          <internalNodes>
            0 -1 13 1.9210433587431908e-02</internalNodes>
          <leafValues>
            -7.8412133455276489e-01 1.</leafValues></_>
        <_>
          <internalNodes>
            0 -1 2 1.5824020010768436e-05</internalNodes>
          <leafValues>
            7.4287056922912598e-02 -7.4962139129638672e-01</leafValues></_>
        <_>
          <internalNodes>
            0 -1 17 8.4217186667956412e-05</internalNodes>
          <leafValues>
            3.6566698551177979e-01 -5.1459085941314697e-01</leafValues></_>
        <_>
          <internalNodes>
            0 -1 14 -1.9676085503306240e-04</internalNodes>
          <leafValues>
            6.8178594112396240e-01 -3.0027174949645996e-01</leafValues></_>
        <_>
          <internalNodes>
            0 -1 16 7.7642621472477913e-03</internalNodes>
          <leafValues>
            3.0337417125701904e-01 -7.4384206533432007e-01</leafValues></_>
        <_>
          <internalNodes>
            0 -1 20 -7.4046602094313130e-06</internalNodes>
          <leafValues>
            -4.0587660670280457e-01 5.2948737144470215e-01</leafValues></_>
        <_>
          <internalNodes>
            0 -1 12 1.6050832346081734e-04</internalNodes>
          <leafValues>
            -3.8737681508064270e-01 6.1285543441772461e-01</leafValues></_>
        <_>
          <internalNodes>
            0 -1 22 8.5318024503067136e-05</internalNodes>
          <leafValues>
            4.7858065366744995e-01 -5.1387399435043335e-01</leafValues></_></weakClassifiers></_>
    <!-- stage 2 -->
    <_>
      <maxWeakCount>6</maxWeakCount>
      <stageThreshold>-1.4128521680831909e+00</stageThreshold>
      <weakClassifiers>
        <_>
          <internalNodes>
            0 -1 7 -6.3679303275421262e-04</internalNodes>
          <leafValues>
            1. -8.2149362564086914e-01</leafValues></_>
        <_>
          <internalNodes>
            0 -1 11 -3.0824313871562481e-03</internalNodes>
          <leafValues>
            7.9897683858871460e-01 -5.6084567308425903e-01</leafValues></_>
        <_>
          <internalNodes>
            0 -1 5 -1.0940538049908355e-04</internalNodes>
          <leafValues>
            -5.2838736772537231e-01 5.5177438259124756e-01</leafValues></_>
        <_>
          <internalNodes>
            0 -1 6 3.1325711461249739e-05</internalNodes>
          <leafValues>
            5.5162131786346436e-01 -5.9859108924865723e-01</leafValues></_>
        <_>
          <internalNodes>
            0 -1 10 5.2245377446524799e-05</internalNodes>
          <leafValues>
            6.2305873632431030e-01 -5.3601247072219849e-01</leafValues></_>
        <_>
          <internalNodes>
            0 -1 4 -3.4696859074756503e-05</internalNodes>
          <leafValues>
            -5.9789603948593140e-01 7.0191973447799683e-01</leafValues></_></weakClassifiers></_>
    <!-- stage 3 -->
    <_>
      <maxWeakCount>3</maxWeakCount>
      <stageThreshold>-7.9426628351211548e-01</stageThreshold>
      <weakClassifiers>
        <_>
          <internalNodes>
            0 -1 15 2.6165560120716691e-04</internalNodes>
          <leafValues>
            1. -9.3050193786621094e-01</leafValues></_>
        <_>
          <internalNodes>
            0 -1 3 8.2062460933229886e-06</internalNodes>
          <leafValues>
            1. -8.6376434564590454e-01</leafValues></_>
        <_>
          <internalNodes>
            0 -1 9 -3.2328674569725990e-03</internalNodes>
          <leafValues>
            -8.4967631101608276e-01 1.</leafValues></_></weakClassifiers></_></stages>
  <features>
    <_>
      <rects>
        <_>
          0 35 6 8 -1.</_>
        <_>
          3 35 3 8 2.</_></rects>
      <tilted>0</tilted></_>
    <_>
      <rects>
        <_>
          1 43 6 4 -1.</_>
        <_>
          4 43 3 4 2.</_></rects>
      <tilted>0</tilted></_>
    <_>
      <rects>
        <_>
          2 42 4 5 -1.</_>
        <_>
          4 42 2 5 2.</_></rects>
      <tilted>0</tilted></_>
    <_>
      <rects>
        <_>
          3 34 2 12 -1.</_>
        <_>
          3 34 1 6 2.</_>
        <_>
          4 40 1 6 2.</_></rects>
      <tilted>0</tilted></_>
    <_>
      <rects>
        <_>
          4 26 3 11 -1.</_>
        <_>
          5 26 1 11 3.</_></rects>
      <tilted>0</tilted></_>
    <_>
      <rects>
        <_>
          6 23 4 6 -1.</_>
        <_>
          6 26 4 3 2.</_></rects>
      <tilted>0</tilted></_>
    <_>
      <rects>
        <_>
          17 38 2 6 -1.</_>
        <_>
          18 38 1 6 2.</_></rects>
      <tilted>0</tilted></_>
    <_>
      <rects>
        <_>
          18 16 10 4 -1.</_>
        <_>
          18 16 5 2 2.</_>
        <_>
          23 18 5 2 2.</_></rects>
      <tilted>0</tilted></_>
    <_>
      <rects>
        <_>
          19 11 12 30 -1.</_>
        <_>
          19 21 12 10 3.</_></rects>
      <tilted>0</tilted></_>
    <_>
      <rects>
        <_>
          19 21 4 22 -1.</_>
        <_>
          21 21 2 22 2.</_></rects>
      <tilted>0</tilted></_>
    <_>
      <rects>
        <_>
          20 4 13 2 -1.</_>
        <_>
          20 5 13 1 2.</_></rects>
      <tilted>0</tilted></_>
    <_>
      <rects>
        <_>
          20 14 18 16 -1.</_>
        <_>
          29 14 9 16 2.</_></rects>
      <tilted>0</tilted></_>
    <_>
      <rects>
        <_>
          20 30 11 3 -1.</_>
        <_>
          20 31 11 1 3.</_></rects>
      <tilted>0</tilted></_>
    <_>
      <rects>
        <_>
          21 1 21 28 -1.</_>
        <_>
          21 15 21 14 2.</_></rects>
      <tilted>0</tilted></_>
    <_>
      <rects>
        <_>
          22 22 12 3 -1.</_>
        <_>
          22 23 12 1 3.</_></rects>
      <tilted>0</tilted></_>
    <_>
      <rects>
        <_>
          22 45 6 1 -1.</_>
        <_>
          24 45 2 1 3.</_></rects>
      <tilted>0</tilted></_>
    <_>
      <rects>
        <_>
          26 30 17 9 -1.</_>
        <_>
          26 33 17 3 3.</_></rects>
      <tilted>0</tilted></_>
    <_>
      <rects>
        <_>
          30 6 3 5 -1.</_>
        <_>
          31 6 1 5 3.</_></rects>
      <tilted>0</tilted></_>
    <_>
      <rects>
        <_>
          33 33 6 2 -1.</_>
        <_>
          36 33 3 2 2.</_></rects>
      <tilted>0</tilted></_>
    <_>
      <rects>
        <_>
          33 46 12 4 -1.</_>
        <_>
          37 46 4 4 3.</_></rects>
      <tilted>0</tilted></_>
    <_>
      <rects>
        <_>
          42 27 2 2 -1.</_>
        <_>
          42 27 1 1 2.</_>
        <_>
          43 28 1 1 2.</_></rects>
      <tilted>0</tilted></_>
    <_>
      <rects>
        <_>
          42 29 6 5 -1.</_>
        <_>
          45 29 3 5 2.</_></rects>
      <tilted>0</tilted></_>
    <_>
      <rects>
        <_>
          43 29 7 3 -1.</_>
        <_>
          43 30 7 1 3.</_></rects>
      <tilted>0</tilted></_>
    <_>
      <rects>
        <_>
          46 8 4 6 -1.</_>
        <_>
          46 10 4 2 3.</_></rects>
      <tilted>0</tilted></_></features></cascade>
</opencv_storage>
