<?xml version="1.0"?>
<opencv_storage>
<cascade>
  <stageType>BOOST</stageType>
  <featureType>HAAR</featureType>
  <height>24</height>
  <width>24</width>
  <stageParams>
    <boostType>GAB</boostType>
    <minHitRate>9.9500000476837158e-01</minHitRate>
    <maxFalseAlarm>5.0000000000000000e-01</maxFalseAlarm>
    <weightTrimRate>9.4999998807907104e-01</weightTrimRate>
    <maxDepth>1</maxDepth>
    <maxWeakCount>100</maxWeakCount></stageParams>
  <featureParams>
    <maxCatCount>0</maxCatCount>
    <featSize>1</featSize>
    <mode>BASIC</mode></featureParams>
  <stageNum>6</stageNum>
  <stages>
    <!-- stage 0 -->
    <_>
      <maxWeakCount>3</maxWeakCount>
      <stageThreshold>-1.1780041456222534e+00</stageThreshold>
      <weakClassifiers>
        <_>
          <internalNodes>
            0 -1 4 1.0078326798975468e-02</internalNodes>
          <leafValues>
            -9.5238095521926880e-01 1.</leafValues></_>
        <_>
          <internalNodes>
            0 -1 8 3.5961298272013664e-03</internalNodes>
          <leafValues>
            -9.1818416118621826e-01 5.1225781440734863e-01</leafValues></_>
        <_>
          <internalNodes>
            0 -1 15 3.1277765519917011e-03</internalNodes>
          <leafValues>
            -7.3788094520568848e-01 8.5103064775466919e-01</leafValues></_></weakClassifiers></_>
    <!-- stage 1 -->
    <_>
      <maxWeakCount>3</maxWeakCount>
      <stageThreshold>-1.2908338308334351e+00</stageThreshold>
      <weakClassifiers>
        <_>
          <internalNodes>
            0 -1 2 -2.9469540342688560e-02</internalNodes>
          <leafValues>
            1. -9.4082838296890259e-01</leafValues></_>
        <_>
          <internalNodes>
            0 -1 10 -5.5410140193998814e-03</internalNodes>
          <leafValues>
            6.9089579582214355e-01 -8.1499528884887695e-01</leafValues></_>
        <_>
          <internalNodes>
            0 -1 14 -9.6557615324854851e-04</internalNodes>
          <leafValues>
            4.6498981118202209e-01 -8.2263356447219849e-01</leafValues></_></weakClassifiers></_>
    <!-- stage 2 -->
    <_>
      <maxWeakCount>3</maxWeakCount>
      <stageThreshold>-1.2121435403823853e+00</stageThreshold>
      <weakClassifiers>
        <_>
          <internalNodes>
            0 -1 9 -2.9844418168067932e-02</internalNodes>
          <leafValues>
            1. -9.4658756256103516e-01</leafValues></_>
        <_>
          <internalNodes>
            0 -1 16 -6.0127545148134232e-03</internalNodes>
          <leafValues>
            7.0112621784210205e-01 -8.8313281536102295e-01</leafValues></_>
        <_>
          <internalNodes>
            0 -1 11 -2.5056372396647930e-03</internalNodes>
          <leafValues>
            6.1757683753967285e-01 -8.5912382602691650e-01</leafValues></_></weakClassifiers></_>
    <!-- stage 3 -->
    <_>
      <maxWeakCount>3</maxWeakCount>
      <stageThreshold>-1.1093858480453491e+00</stageThreshold>
      <weakClassifiers>
        <_>
          <internalNodes>
            0 -1 17 -1.1811604723334312e-02</internalNodes>
          <leafValues>
            7.1428573131561279e-01 -9.5223879814147949e-01</leafValues></_>
        <_>
          <internalNodes>
            0 -1 0 -2.5215959548950195e-01</internalNodes>
          <leafValues>
            8.4147173166275024e-01 -8.5108441114425659e-01</leafValues></_>
        <_>
          <internalNodes>
            0 -1 7 1.1983636766672134e-02</internalNodes>
          <leafValues>
            -7.6763212680816650e-01 6.9393742084503174e-01</leafValues></_></weakClassifiers></_>
    <!-- stage 4 -->
    <_>
      <maxWeakCount>3</maxWeakCount>
      <stageThreshold>-1.3990939855575562e+00</stageThreshold>
      <weakClassifiers>
        <_>
          <internalNodes>
            0 -1 12 -3.4432314336299896e-02</internalNodes>
          <leafValues>
            1. -9.5238095521926880e-01</leafValues></_>
        <_>
          <internalNodes>
            0 -1 1 -1.0280985385179520e-02</internalNodes>
          <leafValues>
            8.3601647615432739e-01 -8.8322049379348755e-01</leafValues></_>
        <_>
          <internalNodes>
            0 -1 6 1.0759307770058513e-03</internalNodes>
          <leafValues>
            -9.5962667465209961e-01 4.3650752305984497e-01</leafValues></_></weakClassifiers></_>
    <!-- stage 5 -->
    <_>
      <maxWeakCount>3</maxWeakCount>
      <stageThreshold>-1.1887255907058716e+00</stageThreshold>
      <weakClassifiers>
        <_>
          <internalNodes>
            0 -1 5 1.9340008497238159e-02</internalNodes>
          <leafValues>
            -9.6996998786926270e-01 1.</leafValues></_>
        <_>
          <internalNodes>
            0 -1 3 -3.4779566340148449e-03</internalNodes>
          <leafValues>
            1. -9.5845252275466919e-01</leafValues></_>
        <_>
          <internalNodes>
            0 -1 13 5.1587987691164017e-03</internalNodes>
          <leafValues>
            -9.5810681581497192e-01 7.3969686031341553e-01</leafValues></_></weakClassifiers></_></stages>
  <features>
    <_>
      <rects>
        <_>
          0 3 21 12 -1.</_>
        <_>
          7 3 7 12 3.</_></rects>
      <tilted>0</tilted></_>
    <_>
      <rects>
        <_>
          1 6 10 3 -1.</_>
        <_>
          1 7 10 1 3.</_></rects>
      <tilted>0</tilted></_>
    <_>
      <rects>
        <_>
          1 7 2 6 -1.</_>
        <_>
          1 9 2 2 3.</_></rects>
      <tilted>0</tilted></_>
    <_>
      <rects>
        <_>
          1 13 2 4 -1.</_>
        <_>
          1 13 1 2 2.</_>
        <_>
          2 15 1 2 2.</_></rects>
      <tilted>0</tilted></_>
    <_>
      <rects>
        <_>
          3 10 3 3 -1.</_>
        <_>
          3 11 3 1 3.</_></rects>
      <tilted>0</tilted></_>
    <_>
      <rects>
        <_>
          3 13 21 3 -1.</_>
        <_>
          3 14 21 1 3.</_></rects>
      <tilted>0</tilted></_>
    <_>
      <rects>
        <_>
          4 18 15 1 -1.</_>
        <_>
          9 18 5 1 3.</_></rects>
      <tilted>0</tilted></_>
    <_>
      <rects>
        <_>
          6 10 3 13 -1.</_>
        <_>
          7 10 1 13 3.</_></rects>
      <tilted>0</tilted></_>
    <_>
      <rects>
        <_>
          7 16 2 2 -1.</_>
        <_>
          7 17 2 1 2.</_></rects>
      <tilted>0</tilted></_>
    <_>
      <rects>
        <_>
          7 16 15 1 -1.</_>
        <_>
          12 16 5 1 3.</_></rects>
      <tilted>0</tilted></_>
    <_>
      <rects>
        <_>
          8 16 2 3 -1.</_>
        <_>
          8 17 2 1 3.</_></rects>
      <tilted>0</tilted></_>
    <_>
      <rects>
        <_>
          10 14 2 2 -1.</_>
        <_>
          11 14 1 2 2.</_></rects>
      <tilted>0</tilted></_>
    <_>
      <rects>
        <_>
          12 8 6 6 -1.</_>
        <_>
          12 10 6 2 3.</_></rects>
      <tilted>0</tilted></_>
    <_>
      <rects>
        <_>
          13 3 8 6 -1.</_>
        <_>
          13 3 4 3 2.</_>
        <_>
          17 6 4 3 2.</_></rects>
      <tilted>0</tilted></_>
    <_>
      <rects>
        <_>
          18 18 3 1 -1.</_>
        <_>
          19 18 1 1 3.</_></rects>
      <tilted>0</tilted></_>
    <_>
      <rects>
        <_>
          20 8 3 1 -1.</_>
        <_>
          21 8 1 1 3.</_></rects>
      <tilted>0</tilted></_>
    <_>
      <rects>
        <_>
          20 17 3 4 -1.</_>
        <_>
          21 17 1 4 3.</_></rects>
      <tilted>0</tilted></_>
    <_>
      <rects>
        <_>
          21 4 3 4 -1.</_>
        <_>
          22 4 1 4 3.</_></rects>
      <tilted>0</tilted></_></features></cascade>
</opencv_storage>
